5 32
40541953 0.0028568595 -0.011788195 0.0144080315 0.010588205 -0.015016267 0.001621268 -0.010677921 -0.00018866037 0.0011194221 0.0022473393 -0.009790838 0.014010661 -0.0043393453 -0.011268325 0.0023090532 0.0006108509 -0.0032284658 -0.0073519247 0.0035820156 -0.01039715 0.0007361207 -0.011190265 0.013923593 -0.009598697 0.006641274 0.0059798635 0.014236896 0.014323897 -0.004236093 0.0015763161 0.003017708 -0.011244786
40554910 -0.014132602 -0.005530158 -0.005909089 -0.009606763 -0.0024237172 0.01434205 -0.013584592 0.012147522 0.010248384 0.00015929213 0.0008318092 -0.00014072526 0.011300776 0.0010314987 0.013802191 0.006263122 0.009215576 -0.007347807 -0.015391946 -0.0055935127 -0.013770966 0.012044803 0.013861437 -0.012149994 -0.0003027435 -0.0035628688 -0.0051419963 0.0073450473 -0.00082807965 0.014695643 0.0024541363 -0.005392262
40555765 -0.012446596 -0.0035301736 0.013031284 0.0015725505 -0.0031441357 -0.0077900216 0.01169181 -0.0019064143 -0.010876727 0.012437423 0.0027421468 -0.013468937 0.012398334 0.0076042083 -0.012414457 0.011268108 -0.015104468 0.00286256 0.0155897895 -0.004205299 0.004009522 -0.011296424 -0.014174069 0.014463659 -0.008271865 0.014234538 0.00453302 0.0013086317 0.0012100496 -0.0055270535 0.011046844 -0.014910055
40558999 -0.013101695 -0.0073389392 0.0044306163 0.0049939137 -0.0019643046 -0.0071028653 -0.011225022 0.010303363 0.01324767 -0.004612059 0.011066035 0.009850779 0.002440945 -0.009296577 -0.009083834 -0.0018289433 -0.0053234193 -0.0038339393 -0.006330032 -0.014480258 0.0069923312 0.0058409367 0.003933684 0.008268296 0.0028224832 0.013039188 0.011121868 -0.0027402453 -0.013106899 -0.004510364 -0.014480218 0.0142775215
40536065 0.0029343748 0.004402991 0.009764191 -0.010190398 -0.0019662299 0.0023251285 -0.00718253 -0.015185767 -0.0023622988 -0.012388422 -0.0005859359 0.011576675 -0.0011133773 0.0048198397 0.011096957 0.015472783 0.013093441 0.003127428 0.013951038 0.0065180133 0.003260356 -0.0061668237 0.014166704 0.003030192 -0.00680781 0.0122578805 0.009117792 -0.014037761 0.013924155 0.0028955063 0.012516311 0.007654462
